{"learner":{"attributes":{"scikit_learn":"{\"_estimator_type\": \"classifier\"}"},"feature_names":["x0","y0","x1","y1","x2","y2","x3","y3","x4","y4","x5","y5","x6","y6","x7","y7","x8","y8","x9","y9","x10","y10","x11","y11","x12","y12","x13","y13","x14","y14","x15","y15","x16","y16"],"feature_types":["float","float","float","float","float","float","float","float","float","float","float","float","float","float","float","float","float","float","float","float","float","float","float","float","float","float","float","float","float","float","float","float","float","float"],"gradient_booster":{"model":{"gbtree_model_param":{"num_parallel_tree":"1","num_trees":"50"},"iteration_indptr":[0,1,2,3,4,5,6,7,8,9,10,11,12,13,14,15,16,17,18,19,20,21,22,23,24,25,26,27,28,29,30,31,32,33,34,35,36,37,38,39,40,41,42,43,44,45,46,47,48,49,50],"tree_info":[0,0,0,0,0,0,0,0,0,0,0,0,0,0,0,0,0,0,0,0,0,0,0,0,0,0,0,0,0,0,0,0,0,0,0,0,0,0,0,0,0,0,0,0,0,0,0,0,0,0],"trees":[{"base_weights":[1.1513348E-7,-7.3689115E-1,1.4086459E0,6.9717145E-1,-1.8397721E0,1.4307319E0,-2.4941051E-1,8.886107E-2,-2.9784784E-1,-2.2599769E-1,1.4002292E-1,5.8749795E-2,1.483417E-1],"categories":[],"categories_nodes":[],"categories_segments":[],"categories_sizes":[],"default_left":[0,0,0,0,0,0,0,0,0,0,0,0,0],"id":0,"left_children":[1,3,5,7,9,11,-1,-1,-1,-1,-1,-1,-1],"loss_changes":[2.704073E3,2.706335E3,8.068848E1,5.263499E2,1.3198008E3,3.8681152E1,0E0,0E0,0E0,0E0,0E0,0E0,0E0],"parents":[2147483647,0,0,1,1,2,2,3,3,4,4,5,5],"right_children":[2,4,6,8,10,12,-1,-1,-1,-1,-1,-1,-1],"split_conditions":[4.4779184E-1,5.8734983E-1,9.16983E-1,4.7940624E-1,9.102024E-1,4.1975516E-1,-2.4941051E-1,8.886107E-2,-2.9784784E-1,-2.2599769E-1,1.4002292E-1,5.8749795E-2,1.483417E-1],"split_indices":[1,29,0,21,25,9,0,0,0,0,0,0,0],"split_type":[0,0,0,0,0,0,0,0,0,0,0,0,0],"sum_hessian":[2.6030327E3,1.7093263E3,8.937065E2,7.432523E2,9.6607404E2,8.893072E2,4.3992443E0,7.071785E2,3.6073803E1,8.5543304E2,1.1064099E2,5.301089E1,8.362963E2],"tree_param":{"num_deleted":"0","num_feature":"34","num_nodes":"13","size_leaf_vector":"1"}},{"base_weights":[4.6073976E-3,-6.4538205E-1,1.3411806E0,6.461062E-1,-1.5619498E0,1.3633127E0,-2.15124E-1,8.2772516E-2,-2.4672098E-1,-1.89525E-1,1.3328709E-1,5.415404E-2,1.4165092E-1],"categories":[],"categories_nodes":[],"categories_segments":[],"categories_sizes":[],"default_left":[0,0,0,0,0,0,0,0,0,0,0,0,0],"id":1,"left_children":[1,3,5,7,9,11,-1,-1,-1,-1,-1,-1,-1],"loss_changes":[2.2522537E3,2.0657476E3,6.849805E1,4.1184317E2,9.871538E2,3.610742E1,0E0,0E0,0E0,0E0,0E0,0E0,0E0],"parents":[2147483647,0,0,1,1,2,2,3,3,4,4,5,5],"right_children":[2,4,6,8,10,12,-1,-1,-1,-1,-1,-1,-1],"split_conditions":[4.4779184E-1,5.8734983E-1,9.16983E-1,4.7940624E-1,9.102024E-1,4.1975516E-1,-2.15124E-1,8.2772516E-2,-2.4672098E-1,-1.89525E-1,1.3328709E-1,5.415404E-2,1.4165092E-1],"split_indices":[1,29,0,21,25,9,0,0,0,0,0,0,0],"split_type":[0,0,0,0,0,0,0,0,0,0,0,0,0],"sum_hessian":[2.590501E3,1.743255E3,8.47246E2,7.2375055E2,1.01950446E3,8.4251636E2,4.7295637E0,6.845506E2,3.919994E1,9.145513E2,1.0495313E2,5.190313E1,7.906133E2],"tree_param":{"num_deleted":"0","num_feature":"34","num_nodes":"13","size_leaf_vector":"1"}},{"base_weights":[7.4335015E-3,-5.7536286E-1,1.2845535E0,6.001782E-1,-1.3630165E0,1.3067014E0,-1.9073334E-1,7.823679E-2,-2.0076351E-1,-1.6393006E-1,1.2755205E-1,4.990234E-2,1.3612212E-1],"categories":[],"categories_nodes":[],"categories_segments":[],"categories_sizes":[],"default_left":[0,0,0,0,0,0,0,0,0,0,0,0,0],"id":2,"left_children":[1,3,5,7,9,11,-1,-1,-1,-1,-1,-1,-1],"loss_changes":[1.8995563E3,1.6234392E3,5.902588E1,3.3595435E2,7.672721E2,3.431836E1,0E0,0E0,0E0,0E0,0E0,0E0,0E0],"parents":[2147483647,0,0,1,1,2,2,3,3,4,4,5,5],"right_children":[2,4,6,8,10,12,-1,-1,-1,-1,-1,-1,-1],"split_conditions":[4.4779184E-1,5.8734983E-1,9.16983E-1,4.1090545E-1,9.102024E-1,4.1975516E-1,-1.9073334E-1,7.823679E-2,-2.0076351E-1,-1.6393006E-1,1.2755205E-1,4.990234E-2,1.3612212E-1],"split_indices":[1,29,0,13,25,9,0,0,0,0,0,0,0],"split_type":[0,0,0,0,0,0,0,0,0,0,0,0,0],"sum_hessian":[2.550142E3,1.751444E3,7.986982E2,7.027926E2,1.0486514E3,7.937809E2,4.917281E0,6.575539E2,4.523871E1,9.4959674E2,9.905462E1,5.083552E1,7.429454E2],"tree_param":{"num_deleted":"0","num_feature":"34","num_nodes":"13","size_leaf_vector":"1"}},{"base_weights":[9.28668E-3,-5.190333E-1,1.236266E0,5.581072E-1,-1.2113479E0,1.258417E0,-1.7249234E-1,7.2107844E-2,-1.9475825E-1,-1.446981E-1,1.2258654E-1,4.596065E-2,1.314957E-1],"categories":[],"categories_nodes":[],"categories_segments":[],"categories_sizes":[],"default_left":[0,0,0,0,0,0,0,0,0,0,0,0,0],"id":3,"left_children":[1,3,5,7,9,11,-1,-1,-1,-1,-1,-1,-1],"loss_changes":[1.6163772E3,1.3004668E3,5.139856E1,2.8016742E2,6.1129553E2,3.3066284E1,0E0,0E0,0E0,0E0,0E0,0E0,0E0],"parents":[2147483647,0,0,1,1,2,2,3,3,4,4,5,5],"right_children":[2,4,6,8,10,12,-1,-1,-1,-1,-1,-1,-1],"split_conditions":[4.4779184E-1,5.8734983E-1,9.16983E-1,4.7940624E-1,9.102024E-1,4.1975516E-1,-1.7249234E-1,7.2107844E-2,-1.9475825E-1,-1.446981E-1,1.2258654E-1,4.596065E-2,1.314957E-1],"split_indices":[1,29,0,21,25,9,0,0,0,0,0,0,0],"split_type":[0,0,0,0,0,0,0,0,0,0,0,0,0],"sum_hessian":[2.4915046E3,1.7420007E3,7.495039E2,6.816487E2,1.060352E3,7.445097E2,4.994234E0,6.406902E2,4.0958546E1,9.672439E2,9.310813E1,4.9816563E1,6.946931E2],"tree_param":{"num_deleted":"0","num_feature":"34","num_nodes":"13","size_leaf_vector":"1"}},{"base_weights":[1.049959E-2,-4.7237587E-1,1.194496E0,2.54383E-1,-1.3373275E0,1.2166477E0,-1.5832219E-1,7.512312E-2,-7.32955E-2,-1.6536535E-1,1.18220225E-1,4.230172E-2,1.2758361E-1],"categories":[],"categories_nodes":[],"categories_segments":[],"categories_sizes":[],"default_left":[0,0,0,0,0,0,0,0,0,0,0,0,0],"id":4,"left_children":[1,3,5,7,9,11,-1,-1,-1,-1,-1,-1,-1],"loss_changes":[1.3849016E3,1.0819425E3,4.5104248E1,4.5963528E2,6.2821484E2,3.2188477E1,0E0,0E0,0E0,0E0,0E0,0E0,0E0],"parents":[2147483647,0,0,1,1,2,2,3,3,4,4,5,5],"right_children":[2,4,6,8,10,12,-1,-1,-1,-1,-1,-1,-1],"split_conditions":[4.4779184E-1,4.7940624E-1,9.16983E-1,7.4649584E-1,9.102024E-1,4.1975516E-1,-1.5832219E-1,7.512312E-2,-7.32955E-2,-1.6536535E-1,1.18220225E-1,4.230172E-2,1.2758361E-1],"split_indices":[1,21,0,33,25,9,0,0,0,0,0,0,0],"split_type":[0,0,0,0,0,0,0,0,0,0,0,0,0],"sum_hessian":[2.4203438E3,1.7196222E3,7.007215E2,9.348437E2,7.847785E2,6.957351E2,4.986362E0,6.220532E2,3.1279047E2,6.9754553E2,8.723292E1,4.8851627E1,6.468835E2],"tree_param":{"num_deleted":"0","num_feature":"34","num_nodes":"13","size_leaf_vector":"1"}},{"base_weights":[1.1389545E-2,-4.3239635E-1,1.1578797E0,2.3474269E-1,-1.2209952E0,1.1800357E0,-1.4697792E-1,7.009362E-2,-6.57038E-2,-1.5896975E-1,6.1211754E-2,3.8903322E-2,1.2424626E-1],"categories":[],"categories_nodes":[],"categories_segments":[],"categories_sizes":[],"default_left":[0,0,0,0,0,0,0,0,0,0,0,0,0],"id":5,"left_children":[1,3,5,7,9,11,-1,-1,-1,-1,-1,-1,-1],"loss_changes":[1.1926089E3,8.89343E2,3.981598E1,3.813963E2,5.245077E2,3.1574097E1,0E0,0E0,0E0,0E0,0E0,0E0,0E0],"parents":[2147483647,0,0,1,1,2,2,3,3,4,4,5,5],"right_children":[2,4,6,8,10,12,-1,-1,-1,-1,-1,-1,-1],"split_conditions":[4.4779184E-1,4.7940624E-1,9.16983E-1,7.4649584E-1,8.952112E-1,4.1975516E-1,-1.4697792E-1,7.009362E-2,-6.57038E-2,-1.5896975E-1,6.1211754E-2,3.8903322E-2,1.2424626E-1],"split_indices":[1,21,0,33,25,9,0,0,0,0,0,0,0],"split_type":[0,0,0,0,0,0,0,0,0,0,0,0,0],"sum_hessian":[2.3419978E3,1.6888838E3,6.53114E2,9.1527856E2,7.736052E2,6.481994E2,4.9146094E0,6.012033E2,3.1407523E2,6.4417267E2,1.2943256E2,4.7943726E1,6.002557E2],"tree_param":{"num_deleted":"0","num_feature":"34","num_nodes":"13","size_leaf_vector":"1"}},{"base_weights":[1.1766657E-2,-3.7519312E-1,1.190078E0,4.680984E-1,-8.446382E-1,1.2147542E-1,-1.3766885E-1,6.0203057E-2,-1.487558E-1,-1.0964576E-1,8.570402E-2],"categories":[],"categories_nodes":[],"categories_segments":[],"categories_sizes":[],"default_left":[0,0,0,0,0,0,0,0,0,0,0],"id":6,"left_children":[1,3,5,7,9,-1,-1,-1,-1,-1,-1],"loss_changes":[1.0318077E3,6.747865E2,3.7105713E1,1.6062772E2,4.7003113E2,0E0,0E0,0E0,0E0,0E0,0E0],"parents":[2147483647,0,0,1,1,2,2,3,3,4,4],"right_children":[2,4,6,8,10,-1,-1,-1,-1,-1,-1],"split_conditions":[4.5503554E-1,5.866281E-1,9.16983E-1,4.1090545E-1,8.990934E-1,1.2147542E-1,-1.3766885E-1,6.0203057E-2,-1.487558E-1,-1.0964576E-1,8.570402E-2],"split_indices":[3,29,0,13,25,0,0,0,0,0,0],"split_type":[0,0,0,0,0,0,0,0,0,0,0],"sum_hessian":[2.26096E3,1.702528E3,5.5843195E2,6.088386E2,1.0936893E3,5.5363617E2,4.795773E0,5.7046295E2,3.837571E1,9.53015E2,1.406743E2],"tree_param":{"num_deleted":"0","num_feature":"34","num_nodes":"11","size_leaf_vector":"1"}},{"base_weights":[1.2114472E-2,-3.4543744E-1,1.1649395E0,2.243107E-1,-9.780302E-1,1.1898219E-1,-1.29869E-1,-8.328145E-2,5.5328466E-2,-1.369177E-1,7.442252E-2],"categories":[],"categories_nodes":[],"categories_segments":[],"categories_sizes":[],"default_left":[0,0,0,0,0,0,0,0,0,0,0],"id":7,"left_children":[1,3,5,7,9,-1,-1,-1,-1,-1,-1],"loss_changes":[8.9945355E2,6.0051935E2,3.3211365E1,3.0549503E2,5.328288E2,0E0,0E0,0E0,0E0,0E0,0E0],"parents":[2147483647,0,0,1,1,2,2,3,3,4,4],"right_children":[2,4,6,8,10,-1,-1,-1,-1,-1,-1],"split_conditions":[4.5503554E-1,4.7940624E-1,9.16983E-1,2.3044448E-1,8.981069E-1,1.1898219E-1,-1.29869E-1,-8.328145E-2,5.5328466E-2,-1.369177E-1,7.442252E-2],"split_indices":[3,21,0,8,25,0,0,0,0,0,0],"split_type":[0,0,0,0,0,0,0,0,0,0,0],"sum_hessian":[2.1801318E3,1.6645632E3,5.155686E2,8.761234E2,7.884399E2,5.1092538E2,4.643239E0,2.0757384E2,6.6854956E2,6.426831E2,1.4575676E2],"tree_param":{"num_deleted":"0","num_feature":"34","num_nodes":"11","size_leaf_vector":"1"}},{"base_weights":[1.20741995E-2,-3.1842574E-1,1.1430075E0,1.983164E-1,-9.203944E-1,1.1681279E-1,-1.23214774E-1,-7.4199855E-2,4.9481317E-2,-1.2936777E-1,6.943345E-2],"categories":[],"categories_nodes":[],"categories_segments":[],"categories_sizes":[],"default_left":[0,0,0,0,0,0,0,0,0,0,0],"id":8,"left_children":[1,3,5,7,9,-1,-1,-1,-1,-1,-1],"loss_changes":[7.8661725E2,5.0678632E2,2.9835815E1,2.4492273E2,4.5443988E2,0E0,0E0,0E0,0E0,0E0,0E0],"parents":[2147483647,0,0,1,1,2,2,3,3,4,4],"right_children":[2,4,6,8,10,-1,-1,-1,-1,-1,-1],"split_conditions":[4.5503554E-1,4.80536E-1,9.16983E-1,2.3044448E-1,8.981069E-1,1.1681279E-1,-1.23214774E-1,-7.4199855E-2,4.9481317E-2,-1.2936777E-1,6.943345E-2],"split_indices":[3,21,0,8,25,0,0,0,0,0,0],"split_type":[0,0,0,0,0,0,0,0,0,0,0],"sum_hessian":[2.102556E3,1.6276234E3,4.7493253E2,8.7617096E2,7.514525E2,4.704649E2,4.4676094E0,2.0968137E2,6.664896E2,6.105159E2,1.4093655E2],"tree_param":{"num_deleted":"0","num_feature":"34","num_nodes":"11","size_leaf_vector":"1"}},{"base_weights":[1.1879565E-2,-2.9413873E-1,1.1237634E0,1.1004468E0,-4.9491572E-1,1.149156E-1,-1.17447175E-1,-2.940826E-1,1.17300116E-1,-1.9953506E-1,-3.261149E-2],"categories":[],"categories_nodes":[],"categories_segments":[],"categories_sizes":[],"default_left":[0,0,0,0,0,0,0,0,0,0,0],"id":9,"left_children":[1,3,5,7,9,-1,-1,-1,-1,-1,-1],"loss_changes":[6.899824E2,4.458027E2,2.6890198E1,6.2220444E1,3.5159503E2,0E0,0E0,0E0,0E0,0E0,0E0],"parents":[2147483647,0,0,1,1,2,2,3,3,4,4],"right_children":[2,4,6,8,10,-1,-1,-1,-1,-1,-1],"split_conditions":[4.5503554E-1,4.4484934E-1,9.16983E-1,1.1696718E-1,4.0301526E-1,1.149156E-1,-1.17447175E-1,-2.940826E-1,1.17300116E-1,-1.9953506E-1,-3.261149E-2],"split_indices":[3,29,0,28,19,0,0,0,0,0,0],"split_type":[0,0,0,0,0,0,0,0,0,0,0],"sum_hessian":[2.0258569E3,1.5892036E3,4.366532E2,1.9943797E2,1.3897657E3,4.3237598E2,4.2772183E0,2.820205E0,1.9661777E2,1.3944528E2,1.2503204E3],"tree_param":{"num_deleted":"0","num_feature":"34","num_nodes":"11","size_leaf_vector":"1"}},{"base_weights":[1.2443746E-2,-2.6534086E-1,1.106788E0,2.1716033E-1,-8.25549E-1,1.1324885E-1,-1.1237674E-1,5.806007E-2,-4.246816E-2,-1.1345114E-1,9.3942225E-2],"categories":[],"categories_nodes":[],"categories_segments":[],"categories_sizes":[],"default_left":[0,0,0,0,0,0,0,0,0,0,0],"id":10,"left_children":[1,3,5,7,9,-1,-1,-1,-1,-1,-1],"loss_changes":[6.033151E2,4.2803653E2,2.4305511E1,1.9881152E2,4.005989E2,0E0,0E0,0E0,0E0,0E0,0E0],"parents":[2147483647,0,0,1,1,2,2,3,3,4,4],"right_children":[2,4,6,8,10,-1,-1,-1,-1,-1,-1],"split_conditions":[4.5503554E-1,4.7940624E-1,9.16983E-1,7.4649584E-1,5.099092E-1,1.1324885E-1,-1.1237674E-1,5.806007E-2,-4.246816E-2,-1.1345114E-1,9.3942225E-2],"split_indices":[3,21,0,33,11,0,0,0,0,0,0],"split_type":[0,0,0,0,0,0,0,0,0,0,0],"sum_hessian":[1.9826754E3,1.5818911E3,4.007843E2,8.5021906E2,7.3167206E2,3.9670572E2,4.078559E0,5.428997E2,3.0731934E2,6.229759E2,1.0869616E2],"tree_param":{"num_deleted":"0","num_feature":"34","num_nodes":"11","size_leaf_vector":"1"}},{"base_weights":[1.2360295E-2,-2.6670688E-1,1.0128076E0,1.9456658E-1,-8.6907494E-1,3.649827E-1,1.0917801E0,-6.2050767E-2,4.5480303E-2,-1.1415358E-1,7.230847E-2,-1.2132889E-1,1.0983757E-1,1.1177005E-1,-1.0786199E-1],"categories":[],"categories_nodes":[],"categories_segments":[],"categories_sizes":[],"default_left":[0,0,0,0,0,0,0,0,0,0,0,0,0,0,0],"id":11,"left_children":[1,3,5,7,9,11,13,-1,-1,-1,-1,-1,-1,-1,-1],"loss_changes":[5.32228E2,4.1433508E2,2.087262E1,1.7951028E2,2.813241E2,5.536355E1,2.2026093E1,0E0,0E0,0E0,0E0,0E0,0E0,0E0,0E0],"parents":[2147483647,0,0,1,1,2,2,3,3,4,4,5,5,6,6],"right_children":[2,4,6,8,10,12,14,-1,-1,-1,-1,-1,-1,-1,-1],"split_conditions":[4.4779184E-1,4.80536E-1,4.1975516E-1,2.3044448E-1,7.325759E-1,8.7876004E-1,9.16983E-1,-6.2050767E-2,4.5480303E-2,-1.1415358E-1,7.230847E-2,-1.2132889E-1,1.0983757E-1,1.1177005E-1,-1.0786199E-1],"split_indices":[1,21,9,8,17,23,0,0,0,0,0,0,0,0,0],"split_type":[0,0,0,0,0,0,0,0,0,0,0,0,0,0,0],"sum_hessian":[1.9043479E3,1.4895754E3,4.1477237E2,8.43969E2,6.4560645E2,4.5679237E1,3.690931E2,2.0391429E2,6.4005475E2,5.515112E2,9.4095215E1,1.4284485E1,3.1394753E1,3.652165E2,3.8766382E0],"tree_param":{"num_deleted":"0","num_feature":"34","num_nodes":"15","size_leaf_vector":"1"}},{"base_weights":[1.19728E-2,-2.2819251E-1,1.0784205E0,1.0403415E0,-4.033319E-1,1.1048465E-1,-1.0379523E-1,-2.4518552E-1,1.1168539E-1,-1.803586E-1,-2.3774596E-2],"categories":[],"categories_nodes":[],"categories_segments":[],"categories_sizes":[],"default_left":[0,0,0,0,0,0,0,0,0,0,0],"id":12,"left_children":[1,3,5,7,9,-1,-1,-1,-1,-1,-1],"loss_changes":[4.6999915E2,3.331846E2,2.001062E1,5.136386E1,3.0488956E2,0E0,0E0,0E0,0E0,0E0,0E0],"parents":[2147483647,0,0,1,1,2,2,3,3,4,4],"right_children":[2,4,6,8,10,-1,-1,-1,-1,-1,-1],"split_conditions":[4.5503554E-1,4.9970585E-1,9.16983E-1,1.1696718E-1,4.0301526E-1,1.1048465E-1,-1.0379523E-1,-2.4518552E-1,1.1168539E-1,-1.803586E-1,-2.3774596E-2],"split_indices":[3,31,0,28,19,0,0,0,0,0,0],"split_type":[0,0,0,0,0,0,0,0,0,0,0],"sum_hessian":[1.8330863E3,1.4967927E3,3.3629352E2,1.8098427E2,1.3158085E3,3.3261826E2,3.6752675E0,3.2146614E0,1.777696E2,1.3809927E2,1.1777092E3],"tree_param":{"num_deleted":"0","num_feature":"34","num_nodes":"11","size_leaf_vector":"1"}},{"base_weights":[1.2261079E-2,-2.0631611E-1,1.0664136E0,2.0204344E-1,-7.1789235E-1,1.0932652E-1,-1.00093424E-1,-1.8658785E-2,6.93239E-2,-1.06124245E-1,6.739832E-2],"categories":[],"categories_nodes":[],"categories_segments":[],"categories_sizes":[],"default_left":[0,0,0,0,0,0,0,0,0,0,0],"id":13,"left_children":[1,3,5,7,9,-1,-1,-1,-1,-1,-1],"loss_changes":[4.1387204E2,3.109528E2,1.8218262E1,1.5821529E2,3.16438E2,0E0,0E0,0E0,0E0,0E0,0E0],"parents":[2147483647,0,0,1,1,2,2,3,3,4,4],"right_children":[2,4,6,8,10,-1,-1,-1,-1,-1,-1],"split_conditions":[4.5503554E-1,4.80536E-1,9.16983E-1,4.428712E-1,8.981069E-1,1.0932652E-1,-1.00093424E-1,-1.8658785E-2,6.93239E-2,-1.06124245E-1,6.739832E-2],"split_indices":[3,21,0,19,25,0,0,0,0,0,0],"split_type":[0,0,0,0,0,0,0,0,0,0,0],"sum_hessian":[1.7942578E3,1.4867802E3,3.0747766E2,8.271348E2,6.596453E2,3.0400037E2,3.4772964E0,4.621245E2,3.6501028E2,5.2931146E2,1.3033386E2],"tree_param":{"num_deleted":"0","num_feature":"34","num_nodes":"11","size_leaf_vector":"1"}},{"base_weights":[1.1750943E-2,-1.9058506E-1,1.055615E0,1.105407E0,-3.4358272E-1,1.0829351E-1,-9.6691675E-2,-2.1004267E-1,1.1939899E-1,-1.372085E-1,-1.9917645E-2],"categories":[],"categories_nodes":[],"categories_segments":[],"categories_sizes":[],"default_left":[0,0,0,0,0,0,0,0,0,0,0],"id":14,"left_children":[1,3,5,7,9,-1,-1,-1,-1,-1,-1],"loss_changes":[3.6665616E2,2.887165E2,1.6621216E1,4.617894E1,1.9301074E2,0E0,0E0,0E0,0E0,0E0,0E0],"parents":[2147483647,0,0,1,1,2,2,3,3,4,4],"right_children":[2,4,6,8,10,-1,-1,-1,-1,-1,-1],"split_conditions":[4.5503554E-1,4.4184506E-1,9.16983E-1,1.1696718E-1,4.0301526E-1,1.0829351E-1,-9.6691675E-2,-2.1004267E-1,1.1939899E-1,-1.372085E-1,-1.9917645E-2],"split_indices":[3,27,0,28,19,0,0,0,0,0,0],"split_type":[0,0,0,0,0,0,0,0,0,0,0],"sum_hessian":[1.7340164E3,1.4531621E3,2.8085434E2,1.5278093E2,1.3003811E3,2.7756952E2,3.284809E0,3.4974127E0,1.4928351E2,1.5905374E2,1.1413274E3],"tree_param":{"num_deleted":"0","num_feature":"34","num_nodes":"11","size_leaf_vector":"1"}},{"base_weights":[1.1960124E-2,-1.9120507E-1,9.498255E-1,1.8365024E-2,-1.3158607E-1,3.6918426E-1,1.0466261E0,3.4269672E-2,-6.1249632E-2,-7.3765896E-2,1.2009008E-1,1.0742509E-1,-9.3538836E-2],"categories":[],"categories_nodes":[],"categories_segments":[],"categories_sizes":[],"default_left":[0,0,0,0,0,0,0,0,0,0,0,0,0],"id":15,"left_children":[1,3,5,7,-1,9,11,-1,-1,-1,-1,-1,-1],"loss_changes":[3.2446008E2,3.2992142E2,1.665503E1,2.4181511E2,0E0,4.2191093E1,1.5203644E1,0E0,0E0,0E0,0E0,0E0,0E0],"parents":[2147483647,0,0,1,1,2,2,3,3,5,5,6,6],"right_children":[2,4,6,8,-1,10,12,-1,-1,-1,-1,-1,-1],"split_conditions":[4.4779184E-1,3.9061704E-1,4.1975516E-1,5.0541055E-1,-1.3158607E-1,8.798987E-1,9.16983E-1,3.4269672E-2,-6.1249632E-2,-7.3765896E-2,1.2009008E-1,1.0742509E-1,-9.3538836E-2],"split_indices":[1,7,9,19,0,23,0,0,0,0,0,0,0],"split_type":[0,0,0,0,0,0,0,0,0,0,0,0,0],"sum_hessian":[1.7008773E3,1.3986835E3,3.0219382E2,1.179818E3,2.1886546E2,4.3868725E1,2.583251E2,7.795176E2,4.0030048E2,1.8869886E1,2.4998838E1,2.5522583E2,3.0992808E0],"tree_param":{"num_deleted":"0","num_feature":"34","num_nodes":"13","size_leaf_vector":"1"}},{"base_weights":[1.1251643E-2,-1.5887369E-1,1.0370392E0,9.8450917E-1,-3.0572394E-1,1.0654326E-1,-9.059425E-2,-1.903112E-1,1.0631081E-1,-1.5014341E-1,-1.5362267E-2],"categories":[],"categories_nodes":[],"categories_segments":[],"categories_sizes":[],"default_left":[0,0,0,0,0,0,0,0,0,0,0],"id":16,"left_children":[1,3,5,7,9,-1,-1,-1,-1,-1,-1],"loss_changes":[2.8799863E2,2.3798822E2,1.391658E1,3.8645126E1,2.280588E2,0E0,0E0,0E0,0E0,0E0,0E0],"parents":[2147483647,0,0,1,1,2,2,3,3,4,4],"right_children":[2,4,6,8,10,-1,-1,-1,-1,-1,-1],"split_conditions":[4.5503554E-1,4.9970585E-1,9.16983E-1,1.1696718E-1,4.0301526E-1,1.0654326E-1,-9.059425E-2,-1.903112E-1,1.0631081E-1,-1.5014341E-1,-1.5362267E-2],"split_indices":[3,31,0,28,19,0,0,0,0,0,0],"split_type":[0,0,0,0,0,0,0,0,0,0,0],"sum_hessian":[1.6483601E3,1.4145964E3,2.3376361E2,1.6035565E2,1.2542408E3,2.308419E2,2.9217072E0,3.6340091E0,1.5672165E2,1.4054065E2,1.1137002E3],"tree_param":{"num_deleted":"0","num_feature":"34","num_nodes":"11","size_leaf_vector":"1"}},{"base_weights":[1.12843E-2,-1.4376852E-1,1.0289382E0,1.9583888E-1,-6.3620955E-1,1.05794266E-1,-8.782547E-2,-5.6874254E-3,9.724948E-2,-1.0861417E-1,5.1669866E-2],"categories":[],"categories_nodes":[],"categories_segments":[],"categories_sizes":[],"default_left":[0,0,0,0,0,0,0,0,0,0,0],"id":17,"left_children":[1,3,5,7,9,-1,-1,-1,-1,-1,-1],"loss_changes":[2.5543575E2,2.3506825E2,1.2769089E1,1.6339572E2,2.9812555E2,0E0,0E0,0E0,0E0,0E0,0E0],"parents":[2147483647,0,0,1,1,2,2,3,3,4,4],"right_children":[2,4,6,8,10,-1,-1,-1,-1,-1,-1],"split_conditions":[4.5503554E-1,4.8557192E-1,9.16983E-1,6.0913366E-1,9.3537146E-1,1.05794266E-1,-8.782547E-2,-5.6874254E-3,9.724948E-2,-1.0861417E-1,5.1669866E-2],"split_indices":[3,15,0,14,31,0,0,0,0,0,0],"split_type":[0,0,0,0,0,0,0,0,0,0,0],"sum_hessian":[1.6168951E3,1.4038578E3,2.1303731E2,8.312182E2,5.7263965E2,2.1028459E2,2.752707E0,6.278509E2,2.0336726E2,4.1193604E2,1.6070361E2],"tree_param":{"num_deleted":"0","num_feature":"34","num_nodes":"11","size_leaf_vector":"1"}},{"base_weights":[1.0522677E-2,-1.3207641E-1,1.0214968E0,3.387785E-1,-4.602027E-1,1.051165E-1,-8.52065E-2,4.942097E-2,-1.2998055E-1,-6.143244E-2,1.1792215E-1],"categories":[],"categories_nodes":[],"categories_segments":[],"categories_sizes":[],"default_left":[0,0,0,0,0,0,0,0,0,0,0],"id":18,"left_children":[1,3,5,7,9,-1,-1,-1,-1,-1,-1],"loss_changes":[2.2745929E2,2.1379977E2,1.1736832E1,1.454242E2,2.0673706E2,0E0,0E0,0E0,0E0,0E0,0E0],"parents":[2147483647,0,0,1,1,2,2,3,3,4,4],"right_children":[2,4,6,8,10,-1,-1,-1,-1,-1,-1],"split_conditions":[4.5503554E-1,5.912211E-1,9.16983E-1,4.1090545E-1,5.1905286E-1,1.051165E-1,-8.52065E-2,4.942097E-2,-1.2998055E-1,-6.143244E-2,1.1792215E-1],"split_indices":[3,29,0,13,11,0,0,0,0,0,0],"split_type":[0,0,0,0,0,0,0,0,0,0,0],"sum_hessian":[1.5758458E3,1.3818093E3,1.9403648E2,5.674693E2,8.1434E2,1.9144388E2,2.5926077E0,5.189424E2,4.852695E1,7.449343E2,6.940575E1],"tree_param":{"num_deleted":"0","num_feature":"34","num_nodes":"11","size_leaf_vector":"1"}},{"base_weights":[1.041413E-2,-1.4025977E-1,8.966931E-1,4.0702272E-2,-1.231506E-1,1.0580849E-1,4.5963818E-1,3.661609E-2,-4.957141E-2,-5.980265E-2,1.1091285E-1],"categories":[],"categories_nodes":[],"categories_segments":[],"categories_sizes":[],"default_left":[0,0,0,0,0,0,0,0,0,0,0],"id":19,"left_children":[1,3,5,7,-1,-1,9,-1,-1,-1,-1],"loss_changes":[2.0322336E2,2.5691623E2,1.5111282E1,1.9513701E2,0E0,0E0,4.284329E1,0E0,0E0,0E0,0E0],"parents":[2147483647,0,0,1,1,2,2,3,3,6,6],"right_children":[2,4,6,8,-1,-1,10,-1,-1,-1,-1],"split_conditions":[4.4779184E-1,3.9061704E-1,7.449867E-1,5.0417435E-1,-1.231506E-1,1.0580849E-1,9.169091E-1,3.661609E-2,-4.957141E-2,-5.980265E-2,1.1091285E-1],"split_indices":[1,7,17,20,0,0,27,0,0,0,0],"split_type":[0,0,0,0,0,0,0,0,0,0,0],"sum_hessian":[1.5198846E3,1.299758E3,2.2012663E2,1.115703E3,1.8405502E2,1.5972415E2,6.0402477E1,6.9459216E2,4.2111087E2,2.3010382E1,3.7392097E1],"tree_param":{"num_deleted":"0","num_feature":"34","num_nodes":"11","size_leaf_vector":"1"}},{"base_weights":[9.742982E-3,-1.1260908E-1,1.0077606E0,1.0317135E0,-2.3231708E-1,1.03947274E-1,-8.0993816E-2,-1.7928888E-1,1.1322929E-1,-1.2449392E-1,-8.004197E-3],"categories":[],"categories_nodes":[],"categories_segments":[],"categories_sizes":[],"default_left":[0,0,0,0,0,0,0,0,0,0,0],"id":20,"left_children":[1,3,5,7,9,-1,-1,-1,-1,-1,-1],"loss_changes":[1.8103519E2,1.8115923E2,1.0174591E1,3.7616425E1,1.8439232E2,0E0,0E0,0E0,0E0,0E0,0E0],"parents":[2147483647,0,0,1,1,2,2,3,3,4,4],"right_children":[2,4,6,8,10,-1,-1,-1,-1,-1,-1],"split_conditions":[4.5503554E-1,4.4184506E-1,9.16983E-1,1.1696718E-1,4.0301526E-1,1.03947274E-1,-8.0993816E-2,-1.7928888E-1,1.1322929E-1,-1.2449392E-1,-8.004197E-3],"split_indices":[3,27,0,28,19,0,0,0,0,0,0],"split_type":[0,0,0,0,0,0,0,0,0,0,0],"sum_hessian":[1.4806345E3,1.3197294E3,1.6090517E2,1.2426135E2,1.195468E3,1.5856691E2,2.3382642E0,3.6940696E0,1.2056728E2,1.5533331E2,1.0401348E3],"tree_param":{"num_deleted":"0","num_feature":"34","num_nodes":"11","size_leaf_vector":"1"}},{"base_weights":[9.771426E-3,-1.0156302E-1,1.0017538E0,5.3183343E-2,-9.1988826E-1,1.0343122E-1,-7.868819E-2,-3.0113611E-2,5.118207E-2,-1.1685552E-1,9.842243E-2],"categories":[],"categories_nodes":[],"categories_segments":[],"categories_sizes":[],"default_left":[0,0,0,0,0,0,0,0,0,0,0],"id":21,"left_children":[1,3,5,7,9,-1,-1,-1,-1,-1,-1],"loss_changes":[1.6128691E2,1.6632971E2,9.395645E0,1.7975682E2,1.0004991E2,0E0,0E0,0E0,0E0,0E0,0E0],"parents":[2147483647,0,0,1,1,2,2,3,3,4,4],"right_children":[2,4,6,8,10,-1,-1,-1,-1,-1,-1],"split_conditions":[4.5503554E-1,3.9061704E-1,9.16983E-1,3.1536502E-1,8.7876004E-1,1.0343122E-1,-7.868819E-2,-3.0113611E-2,5.118207E-2,-1.1685552E-1,9.842243E-2],"split_indices":[3,7,0,3,23,0,0,0,0,0,0],"split_type":[0,0,0,0,0,0,0,0,0,0,0],"sum_hessian":[1.4584579E3,1.3120936E3,1.4636427E2,1.1042192E3,2.0787428E2,1.4416185E2,2.2024317E0,6.231496E2,4.810697E2,1.8420447E2,2.366981E1],"tree_param":{"num_deleted":"0","num_feature":"34","num_nodes":"11","size_leaf_vector":"1"}},{"base_weights":[9.062547E-3,-1.3951753E0,8.657843E-2,-1.331121E0,-2.875826E-1,-7.379705E-2,8.7445235E-1,-2.920422E-3,-1.3540511E-1,2.2414898E-2,-1.0306757E-1,-1.58391E-1,1.0367644E-1],"categories":[],"categories_nodes":[],"categories_segments":[],"categories_sizes":[],"default_left":[0,0,0,0,0,0,0,0,0,0,0,0,0],"id":22,"left_children":[1,3,5,7,-1,9,11,-1,-1,-1,-1,-1,-1],"loss_changes":[1.5590459E2,3.278244E0,1.7155957E2,2.1600952E0,0E0,3.2199725E2,9.326758E1,0E0,0E0,0E0,0E0,0E0,0E0],"parents":[2147483647,0,0,1,1,2,2,3,3,5,5,6,6],"right_children":[2,4,6,8,-1,10,12,-1,-1,-1,-1,-1,-1],"split_conditions":[2.1850847E-1,2.8694534E-1,7.2395056E-1,2.4839611E-1,-2.875826E-1,5.0417435E-1,5.247448E-1,-2.920422E-3,-1.3540511E-1,2.2414898E-2,-1.0306757E-1,-1.58391E-1,1.0367644E-1],"split_indices":[5,11,26,6,0,20,4,0,0,0,0,0,0],"split_type":[0,0,0,0,0,0,0,0,0,0,0,0,0],"sum_hessian":[1.4301688E3,7.3928024E1,1.3562408E3,7.268272E1,1.2453134E0,1.1276156E3,2.2862517E2,1.297321E0,7.138539E1,8.6045807E2,2.6715756E2,1.361749E1,2.1500768E2],"tree_param":{"num_deleted":"0","num_feature":"34","num_nodes":"13","size_leaf_vector":"1"}},{"base_weights":[7.846272E-3,1.0956029E-1,-8.742421E-2,-1.3978242E0,1.4626752E-2,-1.4741647E-1,7.6776624E-2,8.174178E-2,-1.8561387E-2],"categories":[],"categories_nodes":[],"categories_segments":[],"categories_sizes":[],"default_left":[0,0,0,0,0,0,0,0,0],"id":23,"left_children":[1,-1,3,5,7,-1,-1,-1,-1],"loss_changes":[1.4537646E2,0E0,1.7251988E2,1.6541382E1,1.9268727E2,0E0,0E0,0E0,0E0],"parents":[2147483647,0,0,2,2,3,3,4,4],"right_children":[2,-1,4,6,8,-1,-1,-1,-1],"split_conditions":[2.0975868E-1,1.0956029E-1,2.7368644E-1,3.0859718E-1,4.0851718E-1,-1.4741647E-1,7.6776624E-2,8.174178E-2,-1.8561387E-2],"split_indices":[0,0,26,1,2,0,0,0,0],"split_type":[0,0,0,0,0,0,0,0,0],"sum_hessian":[1.4009023E3,1.1197064E2,1.2889316E3,9.220918E1,1.1967224E3,8.9377754E1,2.8314283E0,2.3829285E2,9.584296E2],"tree_param":{"num_deleted":"0","num_feature":"34","num_nodes":"9","size_leaf_vector":"1"}},{"base_weights":[7.6249186E-3,-8.652744E-2,1.0483067E0,1.1079506E-1,-8.899604E-1,1.09155394E-1,-7.887011E-2,-1.0239501E-2,6.234662E-2,1.0775323E-2,-1.2676352E-1],"categories":[],"categories_nodes":[],"categories_segments":[],"categories_sizes":[],"default_left":[0,0,0,0,0,0,0,0,0,0,0],"id":24,"left_children":[1,3,5,7,9,-1,-1,-1,-1,-1,-1],"loss_changes":[1.3516971E2,2.0066942E2,9.953682E0,1.11172806E2,9.417531E1,0E0,0E0,0E0,0E0,0E0,0E0],"parents":[2147483647,0,0,1,1,2,2,3,3,4,4],"right_children":[2,4,6,8,10,-1,-1,-1,-1,-1,-1],"split_conditions":[5.1905286E-1,5.0710416E-1,9.16983E-1,5.0938016E-1,4.8902288E-1,1.09155394E-1,-7.887011E-2,-1.0239501E-2,6.234662E-2,1.0775323E-2,-1.2676352E-1],"split_indices":[11,16,0,0,19,0,0,0,0,0,0],"split_type":[0,0,0,0,0,0,0,0,0,0,0],"sum_hessian":[1.3776014E3,1.2641484E3,1.13452934E2,1.015584E3,2.4856453E2,1.112399E2,2.2130349E0,7.178657E2,2.9771826E2,6.845083E1,1.801137E2],"tree_param":{"num_deleted":"0","num_feature":"34","num_nodes":"11","size_leaf_vector":"1"}},{"base_weights":[6.7230808E-3,1.0860898E-1,-8.2761414E-2,-1.335612E0,1.1088795E-2,-1.4065987E-1,7.4274495E-2,7.700449E-2,-1.767472E-2],"categories":[],"categories_nodes":[],"categories_segments":[],"categories_sizes":[],"default_left":[0,0,0,0,0,0,0,0,0],"id":25,"left_children":[1,-1,3,5,7,-1,-1,-1,-1],"loss_changes":[1.3137238E2,0E0,1.477064E2,1.3960571E1,1.668659E2,0E0,0E0,0E0,0E0],"parents":[2147483647,0,0,2,2,3,3,4,4],"right_children":[2,-1,4,6,8,-1,-1,-1,-1],"split_conditions":[2.0975868E-1,1.0860898E-1,2.7368644E-1,3.0859718E-1,4.0851718E-1,-1.4065987E-1,7.4274495E-2,7.700449E-2,-1.767472E-2],"split_indices":[0,0,26,1,2,0,0,0,0],"split_type":[0,0,0,0,0,0,0,0,0],"sum_hessian":[1.3582208E3,1.0312955E2,1.2550913E3,8.6543945E1,1.1685474E3,8.399819E1,2.5457542E0,2.3121552E2,9.373318E2],"tree_param":{"num_deleted":"0","num_feature":"34","num_nodes":"9","size_leaf_vector":"1"}},{"base_weights":[6.553301E-3,1.1580967E-1,-7.60377E-2,-9.6432805E-1,7.189493E-2,-5.4326534E-2,-1.5407635E-1,7.502863E-2,-1.6720051E-2],"categories":[],"categories_nodes":[],"categories_segments":[],"categories_sizes":[],"default_left":[0,0,0,0,0,0,0,0,0],"id":26,"left_children":[1,-1,3,5,7,-1,-1,-1,-1],"loss_changes":[1.2724306E2,0E0,1.6412218E2,4.2438477E1,1.738638E2,0E0,0E0,0E0,0E0],"parents":[2147483647,0,0,2,2,3,3,4,4],"right_children":[2,-1,4,6,8,-1,-1,-1,-1],"split_conditions":[3.8939628E-1,1.1580967E-1,2.5957546E-1,2.8354406E-1,4.0716085E-1,-5.4326534E-2,-1.5407635E-1,7.502863E-2,-1.6720051E-2],"split_indices":[23,0,3,32,0,0,0,0,0],"split_type":[0,0,0,0,0,0,0,0,0],"sum_hessian":[1.3359663E3,8.8534355E1,1.2474319E3,1.7729726E2,1.0701346E3,1.03579254E2,7.3717995E1,2.7831802E2,7.9181665E2],"tree_param":{"num_deleted":"0","num_feature":"34","num_nodes":"9","size_leaf_vector":"1"}},{"base_weights":[6.3468437E-3,-8.599074E-2,1.04319E0,8.33704E-2,-8.0409163E-1,1.0850807E-1,-7.568598E-2,-1.4233311E-2,5.941399E-2,1.3822079E-2,-1.2064334E-1],"categories":[],"categories_nodes":[],"categories_segments":[],"categories_sizes":[],"default_left":[0,0,0,0,0,0,0,0,0,0,0],"id":27,"left_children":[1,3,5,7,9,-1,-1,-1,-1,-1,-1],"loss_changes":[1.2569762E2,1.4669174E2,8.916885E0,1.1265129E2,8.7431595E1,0E0,0E0,0E0,0E0,0E0,0E0],"parents":[2147483647,0,0,1,1,2,2,3,3,4,4],"right_children":[2,4,6,8,10,-1,-1,-1,-1,-1,-1],"split_conditions":[5.1905286E-1,5.0710416E-1,9.16983E-1,5.0938016E-1,4.8902288E-1,1.0850807E-1,-7.568598E-2,-1.4233311E-2,5.941399E-2,1.3822079E-2,-1.2064334E-1],"split_indices":[11,16,0,0,19,0,0,0,0,0,0],"split_type":[0,0,0,0,0,0,0,0,0,0,0],"sum_hessian":[1.3109745E3,1.204613E3,1.0636151E2,9.7544275E2,2.2917026E2,1.0433073E2,2.0307853E0,6.7700354E2,2.984392E2,6.876779E1,1.6040248E2],"tree_param":{"num_deleted":"0","num_feature":"34","num_nodes":"11","size_leaf_vector":"1"}},{"base_weights":[5.60827E-3,1.1413448E-1,-7.239884E-2,-2.220956E0,-1.5816025E-2,-2.698345E-1,-1.2405602E-1,-1.1062471E-2,1.03333585E-1],"categories":[],"categories_nodes":[],"categories_segments":[],"categories_sizes":[],"default_left":[0,0,0,0,0,0,0,0,0],"id":28,"left_children":[1,-1,3,5,7,-1,-1,-1,-1],"loss_changes":[1.1476097E2,0E0,1.47328E2,1.1206421E1,1.17691956E2,0E0,0E0,0E0,0E0],"parents":[2147483647,0,0,2,2,3,3,4,4],"right_children":[2,-1,4,6,8,-1,-1,-1,-1],"split_conditions":[3.8939628E-1,1.1413448E-1,3.5908687E-1,4.3211848E-1,5.1905286E-1,-2.698345E-1,-1.2405602E-1,-1.1062471E-2,1.03333585E-1],"split_indices":[23,0,21,23,11,0,0,0,0],"split_type":[0,0,0,0,0,0,0,0,0],"sum_hessian":[1.2934034E3,8.2250755E1,1.2111527E3,3.009607E1,1.1810566E3,1.906188E1,1.1034189E1,1.0839939E3,9.706269E1],"tree_param":{"num_deleted":"0","num_feature":"34","num_nodes":"9","size_leaf_vector":"1"}},{"base_weights":[5.689477E-3,1.0654067E-1,-7.4195646E-2,-1.276876E0,1.2677009E-2,-1.3387296E-1,6.9629475E-2,3.19534E-2,-3.8959704E-2],"categories":[],"categories_nodes":[],"categories_segments":[],"categories_sizes":[],"default_left":[0,0,0,0,0,0,0,0,0],"id":29,"left_children":[1,-1,3,5,7,-1,-1,-1,-1],"loss_changes":[1.08447235E2,0E0,1.2448395E2,1.0728165E1,1.3739569E2,0E0,0E0,0E0,0E0],"parents":[2147483647,0,0,2,2,3,3,4,4],"right_children":[2,-1,4,6,8,-1,-1,-1,-1],"split_conditions":[2.0975868E-1,1.0654067E-1,2.7368644E-1,3.0859718E-1,4.885023E-1,-1.3387296E-1,6.9629475E-2,3.19534E-2,-3.8959704E-2],"split_indices":[0,0,26,1,15,0,0,0,0],"split_type":[0,0,0,0,0,0,0,0,0],"sum_hessian":[1.279106E3,8.8799416E1,1.1903066E3,7.926397E1,1.1110426E3,7.716654E1,2.0974264E0,6.303861E2,4.806565E2],"tree_param":{"num_deleted":"0","num_feature":"34","num_nodes":"9","size_leaf_vector":"1"}},{"base_weights":[5.3197276E-3,-7.5930074E-2,1.0236405E0,1.5649165E-1,-5.4020447E-1,1.07126355E-1,-7.5370274E-2,-1.2489005E-2,1.420366E-1,4.26515E-2,-8.496931E-2],"categories":[],"categories_nodes":[],"categories_segments":[],"categories_sizes":[],"default_left":[0,0,0,0,0,0,0,0,0,0,0],"id":30,"left_children":[1,3,5,7,9,-1,-1,-1,-1,-1,-1],"loss_changes":[1.0410229E2,1.2582905E2,8.676788E0,2.7661813E2,1.1673937E2,0E0,0E0,0E0,0E0,0E0,0E0],"parents":[2147483647,0,0,1,1,2,2,3,3,4,4],"right_children":[2,4,6,8,10,-1,-1,-1,-1,-1,-1],"split_conditions":[5.1905286E-1,5.0417435E-1,9.16983E-1,5.059384E-1,4.8902288E-1,1.07126355E-1,-7.5370274E-2,-1.2489005E-2,1.420366E-1,4.26515E-2,-8.496931E-2],"split_indices":[11,20,0,0,19,0,0,0,0,0,0],"split_type":[0,0,0,0,0,0,0,0,0,0,0],"sum_hessian":[1.2562712E3,1.1642996E3,9.197173E1,7.7632446E2,3.879751E2,8.9958595E1,2.013133E0,6.3569763E2,1.4062688E2,9.399474E1,2.9398035E2],"tree_param":{"num_deleted":"0","num_feature":"34","num_nodes":"11","size_leaf_vector":"1"}},{"base_weights":[4.910535E-3,8.828941E-1,-8.842475E-2,-1.1854267E-1,9.5387447E-1,-1.3346436E0,7.139031E-2,6.824928E-2,1.083712E-1,4.601876E-2,-1.9373016E-1,6.1220814E-2,-1.215785E-2],"categories":[],"categories_nodes":[],"categories_segments":[],"categories_sizes":[],"default_left":[0,0,0,0,0,0,0,0,0,0,0,0,0],"id":31,"left_children":[1,3,5,-1,7,9,11,-1,-1,-1,-1,-1,-1],"loss_changes":[1.0162097E2,1.8624763E1,2.2335283E2,0E0,3.3392868E0,1.3876585E2,1.0386204E2,0E0,0E0,0E0,0E0,0E0,0E0],"parents":[2147483647,0,0,1,1,2,2,4,4,5,5,6,6],"right_children":[2,4,6,-1,8,10,12,-1,-1,-1,-1,-1,-1],"split_conditions":[4.9970585E-1,1.1696718E-1,4.0301526E-1,-1.1854267E-1,3.7458858E-1,2.7033368E-1,4.0716085E-1,6.824928E-2,1.083712E-1,4.601876E-2,-1.9373016E-1,6.1220814E-2,-1.215785E-2],"split_indices":[31,28,19,0,28,11,0,0,0,0,0,0,0],"split_type":[0,0,0,0,0,0,0,0,0,0,0,0,0],"sum_hessian":[1.2381311E3,1.1816075E2,1.1199703E3,3.399546E0,1.1476121E2,1.2646445E2,9.935059E2,3.916223E1,7.5598976E1,3.1848846E1,9.46156E1,2.606976E2,7.3280835E2],"tree_param":{"num_deleted":"0","num_feature":"34","num_nodes":"13","size_leaf_vector":"1"}},{"base_weights":[4.8887143E-3,-7.1323104E-2,1.0164219E0,8.520175E-2,-6.892499E-1,1.0642848E-1,-7.293921E-2,3.2626502E-2,-3.56843E-2,-3.1368122E-1,-5.2458096E-2],"categories":[],"categories_nodes":[],"categories_segments":[],"categories_sizes":[],"default_left":[0,0,0,0,0,0,0,0,0,0,0],"id":32,"left_children":[1,3,5,7,9,-1,-1,-1,-1,-1,-1],"loss_changes":[9.428857E1,1.10073944E2,7.936844E0,9.692149E1,9.1053406E1,0E0,0E0,0E0,0E0,0E0,0E0],"parents":[2147483647,0,0,1,1,2,2,3,3,4,4],"right_children":[2,4,6,8,10,-1,-1,-1,-1,-1,-1],"split_conditions":[5.1905286E-1,5.0164735E-1,9.16983E-1,4.101448E-1,5.988243E-1,1.0642848E-1,-7.293921E-2,3.2626502E-2,-3.56843E-2,-3.1368122E-1,-5.2458096E-2],"split_indices":[11,16,0,11,10,0,0,0,0,0,0],"split_type":[0,0,0,0,0,0,0,0,0,0,0],"sum_hessian":[1.2211443E3,1.1364503E3,8.469395E1,9.074496E2,2.2900073E2,8.281391E1,1.88003E0,5.873875E2,3.2006207E2,1.3297894E1,2.1570285E2],"tree_param":{"num_deleted":"0","num_feature":"34","num_nodes":"11","size_leaf_vector":"1"}},{"base_weights":[4.6445616E-3,1.05129145E-1,-6.915467E-2,-1.2504297E0,1.50277E-2,-1.3062525E-1,6.578173E-2,6.700641E-2,-1.4645144E-2],"categories":[],"categories_nodes":[],"categories_segments":[],"categories_sizes":[],"default_left":[0,0,0,0,0,0,0,0,0],"id":33,"left_children":[1,-1,3,5,7,-1,-1,-1,-1],"loss_changes":[9.311472E1,0E0,1.1200653E2,8.84082E0,1.1139725E2,0E0,0E0,0E0,0E0],"parents":[2147483647,0,0,2,2,3,3,4,4],"right_children":[2,-1,4,6,8,-1,-1,-1,-1],"split_conditions":[2.0256172E-1,1.05129145E-1,2.7368644E-1,3.0859718E-1,4.0851718E-1,-1.3062525E-1,6.578173E-2,6.700641E-2,-1.4645144E-2],"split_indices":[4,0,26,1,2,0,0,0,0],"split_type":[0,0,0,0,0,0,0,0,0],"sum_hessian":[1.2035563E3,7.840095E1,1.1251554E3,7.3927414E1,1.0512279E3,7.213275E1,1.7946614E0,2.0727446E2,8.439535E2],"tree_param":{"num_deleted":"0","num_feature":"34","num_nodes":"9","size_leaf_vector":"1"}},{"base_weights":[4.5475876E-3,-6.728659E-2,1.0099168E0,9.6371716E-1,-1.5407833E-1,1.0578909E-1,-7.052412E-2,-1.08561926E-1,1.0545906E-1,-1.6231024E-1,-5.98348E-3],"categories":[],"categories_nodes":[],"categories_segments":[],"categories_sizes":[],"default_left":[0,0,0,0,0,0,0,0,0,0,0],"id":34,"left_children":[1,3,5,7,9,-1,-1,-1,-1,-1,-1],"loss_changes":[8.5698E1,9.9255356E1,7.257187E0,1.7185722E1,1.4145288E2,0E0,0E0,0E0,0E0,0E0,0E0],"parents":[2147483647,0,0,1,1,2,2,3,3,4,4],"right_children":[2,4,6,8,10,-1,-1,-1,-1,-1,-1],"split_conditions":[5.1905286E-1,3.986143E-1,9.16983E-1,1.1696718E-1,3.9081997E-1,1.0578909E-1,-7.052412E-2,-1.08561926E-1,1.0545906E-1,-1.6231024E-1,-5.98348E-3],"split_indices":[11,25,0,28,19,0,0,0,0,0,0],"split_type":[0,0,0,0,0,0,0,0,0,0,0],"sum_hessian":[1.1846853E3,1.1065544E3,7.8130844E1,8.5134415E1,1.02142004E3,7.637772E1,1.7531207E0,3.150023E0,8.198439E1,6.059959E1,9.608205E2],"tree_param":{"num_deleted":"0","num_feature":"34","num_nodes":"11","size_leaf_vector":"1"}},{"base_weights":[4.628363E-3,-6.698282E-2,9.666297E-1,7.048282E-2,-8.54105E-1,1.0096244E-1,-6.8589754E-2,-2.3535037E-2,4.6063185E-2,-1.0874647E-1,8.9816324E-2],"categories":[],"categories_nodes":[],"categories_segments":[],"categories_sizes":[],"default_left":[0,0,0,0,0,0,0,0,0,0,0],"id":35,"left_children":[1,3,5,7,9,-1,-1,-1,-1,-1,-1],"loss_changes":[8.078122E1,1.18155365E2,6.4646606E0,1.1108631E2,6.736206E1,0E0,0E0,0E0,0E0,0E0,0E0],"parents":[2147483647,0,0,1,1,2,2,3,3,4,4],"right_children":[2,4,6,8,10,-1,-1,-1,-1,-1,-1],"split_conditions":[4.5503554E-1,3.9061704E-1,9.16983E-1,3.1536502E-1,8.7876004E-1,1.0096244E-1,-6.8589754E-2,-2.3535037E-2,4.6063185E-2,-1.0874647E-1,8.9816324E-2],"split_indices":[3,7,0,3,23,0,0,0,0,0,0],"split_type":[0,0,0,0,0,0,0,0,0,0,0],"sum_hessian":[1.1706709E3,1.0904298E3,8.0241005E1,9.290823E2,1.6134758E2,7.858545E1,1.6555586E0,5.210411E2,4.0804117E2,1.4272011E2,1.8627464E1],"tree_param":{"num_deleted":"0","num_feature":"34","num_nodes":"11","size_leaf_vector":"1"}},{"base_weights":[4.1989847E-3,8.426106E-1,-7.842513E-2,-1.030876E-1,9.0841717E-1,-1.184127E0,6.721978E-2,4.5727763E-2,1.0179174E-1,7.1434E-2,-1.5994678E-1,7.246191E-2,-8.976536E-3],"categories":[],"categories_nodes":[],"categories_segments":[],"categories_sizes":[],"default_left":[0,0,0,0,0,0,0,0,0,0,0,0,0],"id":36,"left_children":[1,3,5,-1,7,9,11,-1,-1,-1,-1,-1,-1],"loss_changes":[7.98589E1,1.3686401E1,1.6908191E2,0E0,4.4961624E0,9.749785E1,9.5861694E1,0E0,0E0,0E0,0E0,0E0,0E0],"parents":[2147483647,0,0,1,1,2,2,4,4,5,5,6,6],"right_children":[2,4,6,-1,8,10,12,-1,-1,-1,-1,-1,-1],"split_conditions":[4.9970585E-1,1.1696718E-1,4.0301526E-1,-1.030876E-1,3.950729E-1,3.459782E-1,5.8340937E-1,4.5727763E-2,1.0179174E-1,7.1434E-2,-1.5994678E-1,7.246191E-2,-8.976536E-3],"split_indices":[31,28,19,0,24,15,29,0,0,0,0,0,0],"split_type":[0,0,0,0,0,0,0,0,0,0,0,0,0],"sum_hessian":[1.1508601E3,1.02416016E2,1.0484441E3,2.9776719E0,9.943835E1,1.21199066E2,9.27245E2,2.0432543E1,7.90058E1,2.1626654E1,9.957241E1,1.7804373E2,7.4920123E2],"tree_param":{"num_deleted":"0","num_feature":"34","num_nodes":"13","size_leaf_vector":"1"}},{"base_weights":[4.291618E-3,-1.2183293E0,5.9169076E-2,-2.1820081E-2,-1.2355014E-1,-8.763468E-2,8.3323705E-1,1.4624058E-2,-8.4584385E-2,-1.431887E-1,1.0227274E-1],"categories":[],"categories_nodes":[],"categories_segments":[],"categories_sizes":[],"default_left":[0,0,0,0,0,0,0,0,0,0,0],"id":37,"left_children":[1,3,5,-1,-1,7,9,-1,-1,-1,-1],"loss_changes":[7.621837E1,5.684967E-1,1.2360852E2,0E0,0E0,1.6232657E2,7.5891464E1,0E0,0E0,0E0,0E0],"parents":[2147483647,0,0,1,1,2,2,5,5,6,6],"right_children":[2,4,6,-1,-1,8,10,-1,-1,-1,-1],"split_conditions":[2.1850847E-1,5.2776873E-1,7.2395056E-1,-2.1820081E-2,-1.2355014E-1,5.0417435E-1,5.247448E-1,1.4624058E-2,-8.4584385E-2,-1.431887E-1,1.0227274E-1],"split_indices":[5,27,26,0,0,20,4,0,0,0,0],"split_type":[0,0,0,0,0,0,0,0,0,0,0],"sum_hessian":[1.1339137E3,4.7798767E1,1.086115E3,1.0382142E0,4.6760555E1,9.137138E2,1.7240112E2,6.989306E2,2.1478322E2,1.2802799E1,1.5959833E2],"tree_param":{"num_deleted":"0","num_feature":"34","num_nodes":"11","size_leaf_vector":"1"}},{"base_weights":[3.5923622E-3,1.0350906E-1,-6.0719356E-2,-1.2002423E0,1.636307E-2,-1.2507138E-1,6.0892295E-2,2.7567921E-2,-3.611362E-2],"categories":[],"categories_nodes":[],"categories_segments":[],"categories_sizes":[],"default_left":[0,0,0,0,0,0,0,0,0],"id":38,"left_children":[1,-1,3,5,7,-1,-1,-1,-1],"loss_changes":[7.402192E1,0E0,9.228429E1,6.8397675E0,9.6507126E1,0E0,0E0,0E0,0E0],"parents":[2147483647,0,0,2,2,3,3,4,4],"right_children":[2,-1,4,6,8,-1,-1,-1,-1],"split_conditions":[2.0975868E-1,1.0350906E-1,2.7368644E-1,3.0859718E-1,4.9013245E-1,-1.2507138E-1,6.0892295E-2,2.7567921E-2,-3.611362E-2],"split_indices":[0,0,26,1,15,0,0,0,0],"split_type":[0,0,0,0,0,0,0,0,0],"sum_hessian":[1.1138922E3,6.4487045E1,1.0494052E3,6.556566E1,9.838395E2,6.408648E1,1.4791828E0,5.833724E2,4.0046713E2],"tree_param":{"num_deleted":"0","num_feature":"34","num_nodes":"9","size_leaf_vector":"1"}},{"base_weights":[3.3202614E-3,-1.1956056E0,5.4636583E-2,-2.351955E-2,-1.2124928E-1,-4.119716E-2,1.1905425E0,1.9938525E-2,-4.9792826E-2,2.063111E-1,9.896909E-2],"categories":[],"categories_nodes":[],"categories_segments":[],"categories_sizes":[],"default_left":[0,0,0,0,0,0,0,0,0,0,0],"id":39,"left_children":[1,3,5,-1,-1,7,9,-1,-1,-1,-1],"loss_changes":[6.7510414E1,4.452896E-1,1.1458883E2,0E0,0E0,1.0682665E2,1.2311325E1,0E0,0E0,0E0,0E0],"parents":[2147483647,0,0,1,1,2,2,5,5,6,6],"right_children":[2,4,6,-1,-1,8,10,-1,-1,-1,-1],"split_conditions":[2.1850847E-1,5.2776873E-1,9.488267E-1,-2.351955E-2,-1.2124928E-1,4.9013245E-1,5.2047056E-1,1.9938525E-2,-4.9792826E-2,2.063111E-1,9.896909E-2],"split_indices":[5,27,31,0,0,15,20,0,0,0,0],"split_type":[0,0,0,0,0,0,0,0,0,0,0],"sum_hessian":[1.095232E3,4.403866E1,1.0511934E3,1.0189031E0,4.3019756E1,9.7029553E2,8.089785E1,6.358998E2,3.3439578E2,1.3402207E1,6.749564E1],"tree_param":{"num_deleted":"0","num_feature":"34","num_nodes":"11","size_leaf_vector":"1"}},{"base_weights":[3.089765E-3,1.02811135E-1,-5.8356047E-2,-3.5305944E-1,2.2354454E-1,1.0870992E-2,-1.1344387E-1,1.6838716E-1,-1.1635418E-2],"categories":[],"categories_nodes":[],"categories_segments":[],"categories_sizes":[],"default_left":[0,0,0,0,0,0,0,0,0],"id":40,"left_children":[1,-1,3,5,7,-1,-1,-1,-1],"loss_changes":[6.803766E1,0E0,8.475131E1,1.8005338E2,2.5906375E2,0E0,0E0,0E0,0E0],"parents":[2147483647,0,0,2,2,3,3,4,4],"right_children":[2,-1,4,6,8,-1,-1,-1,-1],"split_conditions":[2.0256172E-1,1.02811135E-1,6.0913366E-1,4.189952E-1,6.274322E-1,1.0870992E-2,-1.1344387E-1,1.6838716E-1,-1.1635418E-2],"split_indices":[4,0,14,0,14,0,0,0,0],"split_type":[0,0,0,0,0,0,0,0,0],"sum_hessian":[1.078297E3,6.009399E1,1.01820294E3,4.9767407E2,5.205289E2,3.133534E2,1.8432068E2,9.753395E1,4.2299496E2],"tree_param":{"num_deleted":"0","num_feature":"34","num_nodes":"9","size_leaf_vector":"1"}},{"base_weights":[3.3684464E-3,1.0770041E-1,-5.659477E-2,-5.7128376E-1,1.3219723E-1,-1.4366455E-2,-1.4243476E-1,9.948567E-2,-7.365662E-3],"categories":[],"categories_nodes":[],"categories_segments":[],"categories_sizes":[],"default_left":[0,0,0,0,0,0,0,0,0],"id":41,"left_children":[1,-1,3,5,7,-1,-1,-1,-1],"loss_changes":[6.859645E1,0E0,9.8139305E1,9.86624E1,1.3133815E2,0E0,0E0,0E0,0E0],"parents":[2147483647,0,0,2,2,3,3,4,4],"right_children":[2,-1,4,6,8,-1,-1,-1,-1],"split_conditions":[3.8939628E-1,1.0770041E-1,3.1217247E-1,4.2213833E-1,4.0716085E-1,-1.4366455E-2,-1.4243476E-1,9.948567E-2,-7.365662E-3],"split_indices":[23,0,1,17,0,0,0,0,0],"split_type":[0,0,0,0,0,0,0,0,0],"sum_hessian":[1.0635686E3,5.5361694E1,1.0082069E3,2.700271E2,7.381799E2,1.8064351E2,8.938358E1,1.4147522E2,5.967046E2],"tree_param":{"num_deleted":"0","num_feature":"34","num_nodes":"9","size_leaf_vector":"1"}},{"base_weights":[3.5438822E-3,-6.348564E-2,8.9478683E-1,1.0658729E-1,-1.2668131E-1,-1.1355251E-1,1.0814664E0,-1.7078914E-1,-7.0582293E-3,1.13259636E-1,-6.6399366E-2],"categories":[],"categories_nodes":[],"categories_segments":[],"categories_sizes":[],"default_left":[0,0,0,0,0,0,0,0,0,0,0],"id":42,"left_children":[1,3,5,-1,7,-1,9,-1,-1,-1,-1],"loss_changes":[6.2413208E1,6.9487625E1,2.892609E1,0E0,8.158727E1,0E0,6.770508E0,0E0,0E0,0E0,0E0],"parents":[2147483647,0,0,1,1,2,2,4,4,6,6],"right_children":[2,4,6,-1,8,-1,10,-1,-1,-1,-1],"split_conditions":[5.155011E-1,3.8939628E-1,3.7376055E-1,1.0658729E-1,3.6571684E-1,-1.1355251E-1,9.16983E-1,-1.7078914E-1,-7.0582293E-3,1.13259636E-1,-6.6399366E-2],"split_indices":[11,23,1,0,21,0,0,0,0,0,0],"split_type":[0,0,0,0,0,0,0,0,0,0,0],"sum_hessian":[1.0428037E3,9.707252E2,7.207854E1,5.059976E1,9.201254E2,5.6413136E0,6.6437225E1,3.0517357E1,8.896081E2,6.488758E1,1.5496435E0],"tree_param":{"num_deleted":"0","num_feature":"34","num_nodes":"11","size_leaf_vector":"1"}},{"base_weights":[3.5680397E-3,9.087229E-1,-5.7386074E-2,-8.964067E-2,9.9373716E-1,-8.9698553E-1,7.595091E-2,7.3382735E-2,1.05331615E-1,6.896332E-2,-1.2094136E-1,-7.79648E-2,1.7050665E-2],"categories":[],"categories_nodes":[],"categories_segments":[],"categories_sizes":[],"default_left":[0,0,0,0,0,0,0,0,0,0,0,0,0],"id":43,"left_children":[1,3,5,-1,7,9,11,-1,-1,-1,-1,-1,-1],"loss_changes":[5.7007618E1,1.0895004E1,1.08448654E2,0E0,1.9845963E-1,6.664116E1,6.7796234E1,0E0,0E0,0E0,0E0,0E0,0E0],"parents":[2147483647,0,0,1,1,2,2,4,4,5,5,6,6],"right_children":[2,4,6,-1,8,10,12,-1,-1,-1,-1,-1,-1],"split_conditions":[4.4184506E-1,1.1696718E-1,4.0301526E-1,-8.964067E-2,2.4544612E-1,3.459782E-1,2.7402833E-1,7.3382735E-2,1.05331615E-1,6.896332E-2,-1.2094136E-1,-7.79648E-2,1.7050665E-2],"split_indices":[27,28,19,0,3,15,1,0,0,0,0,0,0],"split_type":[0,0,0,0,0,0,0,0,0,0,0,0,0],"sum_hessian":[1.0313086E3,6.419021E1,9.6711835E2,2.4578512E0,6.1732353E1,1.3175475E2,8.3536365E2,1.3995348E1,4.7737007E1,2.147745E1,1.102773E2,8.241115E1,7.5295245E2],"tree_param":{"num_deleted":"0","num_feature":"34","num_nodes":"13","size_leaf_vector":"1"}},{"base_weights":[3.3483836E-3,7.258467E-1,-7.2086945E-2,-2.034175E-1,1.077718E0,-4.1176733E-1,2.0447606E-1,1.0852654E-1,-1.3201718E-1,-8.666458E-2,1.156971E-1,6.910465E-3,-1.1175584E-1,1.5539892E-1,-1.3006709E-2],"categories":[],"categories_nodes":[],"categories_segments":[],"categories_sizes":[],"default_left":[0,0,0,0,0,0,0,0,0,0,0,0,0,0,0],"id":44,"left_children":[1,3,5,7,9,11,13,-1,-1,-1,-1,-1,-1,-1,-1],"loss_changes":[5.583141E1,3.188544E1,8.7224785E1,4.0922813E1,1.18517E1,1.4147723E2,2.3133972E2,0E0,0E0,0E0,0E0,0E0,0E0,0E0,0E0],"parents":[2147483647,0,0,1,1,2,2,3,3,4,4,5,5,6,6],"right_children":[2,4,6,8,10,12,14,-1,-1,-1,-1,-1,-1,-1,-1],"split_conditions":[2.6312175E-1,2.5242177E-1,5.059384E-1,5.842383E-1,3.2736555E-1,4.189952E-1,5.0123626E-1,1.0852654E-1,-1.3201718E-1,-8.666458E-2,1.156971E-1,6.910465E-3,-1.1175584E-1,1.5539892E-1,-1.3006709E-2],"split_indices":[30,3,0,29,17,0,20,0,0,0,0,0,0,0,0],"split_type":[0,0,0,0,0,0,0,0,0,0,0,0,0,0,0],"sum_hessian":[1.02243384E3,9.584408E1,9.265898E2,2.644001E1,6.940407E1,4.156235E2,5.1096628E2,1.2288196E1,1.41518135E1,2.3290384E0,6.7075035E1,2.4773674E2,1.6788676E2,1.0078096E2,4.101853E2],"tree_param":{"num_deleted":"0","num_feature":"34","num_nodes":"15","size_leaf_vector":"1"}},{"base_weights":[3.2870776E-3,-5.8752354E-2,8.7962615E-1,1.3990934E-1,-4.312021E-1,-1.10605314E-1,1.0723684E0,-1.689172E-2,8.701875E-2,-1.0177038E-1,1.5189166E-2,1.1254593E-1,-6.470253E-2],"categories":[],"categories_nodes":[],"categories_segments":[],"categories_sizes":[],"default_left":[0,0,0,0,0,0,0,0,0,0,0,0,0],"id":45,"left_children":[1,3,5,7,9,-1,11,-1,-1,-1,-1,-1,-1],"loss_changes":[5.48418E1,6.97664E1,2.6709934E1,1.3887747E2,1.12308426E2,0E0,6.323654E0,0E0,0E0,0E0,0E0,0E0,0E0],"parents":[2147483647,0,0,1,1,2,2,3,3,4,4,6,6],"right_children":[2,4,6,8,10,-1,12,-1,-1,-1,-1,-1,-1],"split_conditions":[5.155011E-1,4.9013245E-1,3.7376055E-1,6.0913366E-1,4.7103488E-1,-1.10605314E-1,9.16983E-1,-1.689172E-2,8.701875E-2,-1.0177038E-1,1.5189166E-2,1.1254593E-1,-6.470253E-2],"split_indices":[11,15,1,14,11,0,0,0,0,0,0,0,0],"split_type":[0,0,0,0,0,0,0,0,0,0,0,0,0],"sum_hessian":[1.006772E3,9.410821E2,6.568989E1,6.1413293E2,3.2694916E2,5.392853E0,6.029703E1,4.3215012E2,1.8198279E2,1.6262668E2,1.643225E2,5.882605E1,1.4709818E0],"tree_param":{"num_deleted":"0","num_feature":"34","num_nodes":"13","size_leaf_vector":"1"}},{"base_weights":[2.8521088E-3,7.852033E-1,-6.7254506E-2,2.92804E-2,9.792598E-1,-1.3900648E0,2.5931735E-2,9.759688E-2,-2.020453E-1,-9.5039845E-2,1.0357439E-1,9.787705E-2,-1.7187175E-1,-5.210882E-2,1.4888123E-2],"categories":[],"categories_nodes":[],"categories_segments":[],"categories_sizes":[],"default_left":[0,0,0,0,0,0,0,0,0,0,0,0,0,0,0],"id":46,"left_children":[1,3,5,7,9,11,13,-1,-1,-1,-1,-1,-1,-1,-1],"loss_changes":[5.4351967E1,1.1926189E1,1.1214767E2,3.6276253E1,8.049206E0,4.829402E1,5.7287067E1,0E0,0E0,0E0,0E0,0E0,0E0,0E0,0E0],"parents":[2147483647,0,0,1,1,2,2,3,3,4,4,5,5,6,6],"right_children":[2,4,6,8,10,12,14,-1,-1,-1,-1,-1,-1,-1,-1],"split_conditions":[4.9970585E-1,3.950729E-1,4.385147E-1,1.6887201E-1,4.1440335E-1,2.464383E-1,2.7808553E-1,9.759688E-2,-2.020453E-1,-9.5039845E-2,1.0357439E-1,9.787705E-2,-1.7187175E-1,-5.210882E-2,1.4888123E-2],"split_indices":[31,24,23,0,30,9,3,0,0,0,0,0,0,0,0],"split_type":[0,0,0,0,0,0,0,0,0,0,0,0,0,0,0],"sum_hessian":[9.889935E2,8.049653E1,9.08497E2,1.6678478E1,6.381805E1,5.8871998E1,8.49625E2,1.1767436E1,4.911043E0,1.3648496E0,6.24532E1,6.9317527E0,5.1940247E1,1.5532474E2,6.943003E2],"tree_param":{"num_deleted":"0","num_feature":"34","num_nodes":"15","size_leaf_vector":"1"}},{"base_weights":[2.6338357E-3,7.373732E-1,-6.8890356E-2,-1.7523576E-1,1.0847628E0,-2.02631E-1,4.386651E-1,1.0740792E-1,-1.2534465E-1,-7.710024E-2,1.1550426E-1,5.8215805E-3,-9.439716E-2,7.713469E-2,-1.11061074E-1],"categories":[],"categories_nodes":[],"categories_segments":[],"categories_sizes":[],"default_left":[0,0,0,0,0,0,0,0,0,0,0,0,0,0,0],"id":47,"left_children":[1,3,5,7,9,11,13,-1,-1,-1,-1,-1,-1,-1,-1],"loss_changes":[5.1537918E1,2.7771511E1,6.075696E1,3.4816013E1,9.126999E0,1.3697318E2,9.70869E1,0E0,0E0,0E0,0E0,0E0,0E0,0E0,0E0],"parents":[2147483647,0,0,1,1,2,2,3,3,4,4,5,5,6,6],"right_children":[2,4,6,8,10,12,14,-1,-1,-1,-1,-1,-1,-1,-1],"split_conditions":[2.6312175E-1,2.5242177E-1,7.48346E-1,5.842383E-1,3.2736555E-1,4.12033E-1,8.6523217E-1,1.0740792E-1,-1.2534465E-1,-7.710024E-2,1.1550426E-1,5.8215805E-3,-9.439716E-2,7.713469E-2,-1.11061074E-1],"split_indices":[30,3,14,29,17,11,4,0,0,0,0,0,0,0,0],"split_type":[0,0,0,0,0,0,0,0,0,0,0,0,0,0,0],"sum_hessian":[9.787435E2,8.599916E1,8.927443E2,2.3847143E1,6.2152016E1,7.070403E2,1.8570406E2,1.1048805E1,1.2798339E1,1.9040612E0,6.0247955E1,5.2369525E2,1.8334503E2,1.532897E2,3.2414345E1],"tree_param":{"num_deleted":"0","num_feature":"34","num_nodes":"15","size_leaf_vector":"1"}},{"base_weights":[2.0933838E-3,1.04448915E-1,-4.5068603E-2,-1.4889736E0,5.0928077E-4,6.640673E-2,-1.645643E-1,3.567112E-2,-1.6220963E-2],"categories":[],"categories_nodes":[],"categories_segments":[],"categories_sizes":[],"default_left":[0,0,0,0,0,0,0,0,0],"id":48,"left_children":[1,-1,3,5,7,-1,-1,-1,-1],"loss_changes":[4.694248E1,0E0,6.0123207E1,1.05226555E1,5.1446976E1,0E0,0E0,0E0,0E0],"parents":[2147483647,0,0,2,2,3,3,4,4],"right_children":[2,-1,4,6,8,-1,-1,-1,-1],"split_conditions":[3.8939628E-1,1.04448915E-1,3.6571684E-1,4.2268154E-1,4.1170475E-1,6.640673E-2,-1.645643E-1,3.567112E-2,-1.6220963E-2],"split_indices":[23,0,21,27,0,0,0,0,0],"split_type":[0,0,0,0,0,0,0,0,0],"sum_hessian":[9.529059E2,4.03316E1,9.125743E2,2.6955536E1,8.856188E2,1.6087337E0,2.5346802E1,2.7733118E2,6.082876E2],"tree_param":{"num_deleted":"0","num_feature":"34","num_nodes":"9","size_leaf_vector":"1"}},{"base_weights":[2.072027E-3,-5.3801846E-2,8.6705595E-1,1.2629567E-1,-4.25428E-1,-1.0373533E-1,1.0607362E0,-7.3262933E-3,8.5270666E-2,1.7569719E-2,-9.0942584E-2,1.1133297E-1,-5.991165E-2],"categories":[],"categories_nodes":[],"categories_segments":[],"categories_sizes":[],"default_left":[0,0,0,0,0,0,0,0,0,0,0,0,0],"id":49,"left_children":[1,3,5,7,9,-1,11,-1,-1,-1,-1,-1,-1],"loss_changes":[4.57026E1,5.9506298E1,2.226373E1,8.6909195E1,8.45892E1,0E0,5.256668E0,0E0,0E0,0E0,0E0,0E0,0E0],"parents":[2147483647,0,0,1,1,2,2,3,3,4,4,6,6],"right_children":[2,4,6,8,10,-1,12,-1,-1,-1,-1,-1,-1],"split_conditions":[5.155011E-1,4.7741815E-1,3.7376055E-1,5.1362777E-1,4.8902288E-1,-1.0373533E-1,9.16983E-1,-7.3262933E-3,8.5270666E-2,1.7569719E-2,-9.0942584E-2,1.1133297E-1,-5.991165E-2],"split_indices":[11,16,1,4,19,0,0,0,0,0,0,0,0],"split_type":[0,0,0,0,0,0,0,0,0,0,0,0,0],"sum_hessian":[9.43671E2,8.872938E2,5.6377186E1,5.981018E2,2.8919202E2,4.802213E0,5.1574974E1,4.6990836E2,1.2819344E2,1.2927255E2,1.5991948E2,5.0310127E1,1.2648476E0],"tree_param":{"num_deleted":"0","num_feature":"34","num_nodes":"13","size_leaf_vector":"1"}}]},"name":"gbtree"},"learner_model_param":{"base_score":"6.7331415E-1","boost_from_average":"1","num_class":"0","num_feature":"34","num_target":"1"},"objective":{"name":"binary:logistic","reg_loss_param":{"scale_pos_weight":"1"}}},"version":[3,0,4]}